digraph Tree {
node [shape=box, fontname="helvetica"] ;
edge [fontname="helvetica"] ;
0 [label="Open <= 6484.505\ngini = 0.493\nsamples = 657\nvalue = [291, 366]"] ;
1 [label="Volume <= 77950548.0\ngini = 0.467\nsamples = 264\nvalue = [98, 166]"] ;
0 -> 1 [labeldistance=2.5, labelangle=45, headlabel="True"] ;
2 [label="Open <= 227.363\ngini = 0.497\nsamples = 130\nvalue = [60, 70]"] ;
1 -> 2 ;
3 [label="gini = 0.0\nsamples = 7\nvalue = [0, 7]"] ;
2 -> 3 ;
4 [label="Low <= 229.922\ngini = 0.5\nsamples = 123\nvalue = [60, 63]"] ;
2 -> 4 ;
5 [label="Open <= 228.556\ngini = 0.142\nsamples = 13\nvalue = [12, 1]"] ;
4 -> 5 ;
6 [label="Adj Close <= 227.951\ngini = 0.444\nsamples = 3\nvalue = [2, 1]"] ;
5 -> 6 ;
7 [label="gini = 0.0\nsamples = 2\nvalue = [2, 0]"] ;
6 -> 7 ;
8 [label="gini = 0.0\nsamples = 1\nvalue = [0, 1]"] ;
6 -> 8 ;
9 [label="gini = 0.0\nsamples = 10\nvalue = [10, 0]"] ;
5 -> 9 ;
10 [label="Volume <= 68756548.0\ngini = 0.492\nsamples = 110\nvalue = [48, 62]"] ;
4 -> 10 ;
11 [label="Volume <= 59134600.0\ngini = 0.48\nsamples = 100\nvalue = [40, 60]"] ;
10 -> 11 ;
12 [label="Open <= 237.271\ngini = 0.494\nsamples = 85\nvalue = [38, 47]"] ;
11 -> 12 ;
13 [label="Adj Close <= 234.76\ngini = 0.18\nsamples = 10\nvalue = [1, 9]"] ;
12 -> 13 ;
14 [label="High <= 236.296\ngini = 0.444\nsamples = 3\nvalue = [1, 2]"] ;
13 -> 14 ;
15 [label="gini = 0.0\nsamples = 2\nvalue = [0, 2]"] ;
14 -> 15 ;
16 [label="gini = 0.0\nsamples = 1\nvalue = [1, 0]"] ;
14 -> 16 ;
17 [label="gini = 0.0\nsamples = 7\nvalue = [0, 7]"] ;
13 -> 17 ;
18 [label="Low <= 237.336\ngini = 0.5\nsamples = 75\nvalue = [37, 38]"] ;
12 -> 18 ;
19 [label="gini = 0.0\nsamples = 4\nvalue = [4, 0]"] ;
18 -> 19 ;
20 [label="Volume <= 57131800.0\ngini = 0.498\nsamples = 71\nvalue = [33, 38]"] ;
18 -> 20 ;
21 [label="Volume <= 50212150.0\ngini = 0.491\nsamples = 67\nvalue = [29, 38]"] ;
20 -> 21 ;
22 [label="Open <= 281.665\ngini = 0.5\nsamples = 52\nvalue = [26, 26]"] ;
21 -> 22 ;
23 [label="Close <= 269.875\ngini = 0.388\nsamples = 19\nvalue = [5, 14]"] ;
22 -> 23 ;
24 [label="Close <= 257.52\ngini = 0.473\nsamples = 13\nvalue = [5, 8]"] ;
23 -> 24 ;
25 [label="Volume <= 17540400.0\ngini = 0.32\nsamples = 10\nvalue = [2, 8]"] ;
24 -> 25 ;
26 [label="gini = 0.0\nsamples = 1\nvalue = [1, 0]"] ;
25 -> 26 ;
27 [label="Volume <= 29589350.0\ngini = 0.198\nsamples = 9\nvalue = [1, 8]"] ;
25 -> 27 ;
28 [label="gini = 0.0\nsamples = 7\nvalue = [0, 7]"] ;
27 -> 28 ;
29 [label="High <= 254.641\ngini = 0.5\nsamples = 2\nvalue = [1, 1]"] ;
27 -> 29 ;
30 [label="gini = 0.0\nsamples = 1\nvalue = [1, 0]"] ;
29 -> 30 ;
31 [label="gini = 0.0\nsamples = 1\nvalue = [0, 1]"] ;
29 -> 31 ;
32 [label="gini = 0.0\nsamples = 3\nvalue = [3, 0]"] ;
24 -> 32 ;
33 [label="gini = 0.0\nsamples = 6\nvalue = [0, 6]"] ;
23 -> 33 ;
34 [label="Volume <= 12104050.0\ngini = 0.463\nsamples = 33\nvalue = [21, 12]"] ;
22 -> 34 ;
35 [label="gini = 0.0\nsamples = 3\nvalue = [0, 3]"] ;
34 -> 35 ;
36 [label="Open <= 608.605\ngini = 0.42\nsamples = 30\nvalue = [21, 9]"] ;
34 -> 36 ;
37 [label="High <= 434.206\ngini = 0.375\nsamples = 28\nvalue = [21, 7]"] ;
36 -> 37 ;
38 [label="Close <= 288.486\ngini = 0.266\nsamples = 19\nvalue = [16, 3]"] ;
37 -> 38 ;
39 [label="gini = 0.0\nsamples = 6\nvalue = [6, 0]"] ;
38 -> 39 ;
40 [label="Open <= 294.88\ngini = 0.355\nsamples = 13\nvalue = [10, 3]"] ;
38 -> 40 ;
41 [label="gini = 0.0\nsamples = 2\nvalue = [0, 2]"] ;
40 -> 41 ;
42 [label="Volume <= 39136500.0\ngini = 0.165\nsamples = 11\nvalue = [10, 1]"] ;
40 -> 42 ;
43 [label="gini = 0.0\nsamples = 7\nvalue = [7, 0]"] ;
42 -> 43 ;
44 [label="Volume <= 42694900.0\ngini = 0.375\nsamples = 4\nvalue = [3, 1]"] ;
42 -> 44 ;
45 [label="gini = 0.0\nsamples = 1\nvalue = [0, 1]"] ;
44 -> 45 ;
46 [label="gini = 0.0\nsamples = 3\nvalue = [3, 0]"] ;
44 -> 46 ;
47 [label="Low <= 454.42\ngini = 0.494\nsamples = 9\nvalue = [5, 4]"] ;
37 -> 47 ;
48 [label="gini = 0.0\nsamples = 4\nvalue = [0, 4]"] ;
47 -> 48 ;
49 [label="gini = 0.0\nsamples = 5\nvalue = [5, 0]"] ;
47 -> 49 ;
50 [label="gini = 0.0\nsamples = 2\nvalue = [0, 2]"] ;
36 -> 50 ;
51 [label="High <= 607.069\ngini = 0.32\nsamples = 15\nvalue = [3, 12]"] ;
21 -> 51 ;
52 [label="Close <= 434.777\ngini = 0.142\nsamples = 13\nvalue = [1, 12]"] ;
51 -> 52 ;
53 [label="gini = 0.0\nsamples = 9\nvalue = [0, 9]"] ;
52 -> 53 ;
54 [label="Low <= 446.023\ngini = 0.375\nsamples = 4\nvalue = [1, 3]"] ;
52 -> 54 ;
55 [label="gini = 0.0\nsamples = 1\nvalue = [1, 0]"] ;
54 -> 55 ;
56 [label="gini = 0.0\nsamples = 3\nvalue = [0, 3]"] ;
54 -> 56 ;
57 [label="gini = 0.0\nsamples = 2\nvalue = [2, 0]"] ;
51 -> 57 ;
58 [label="gini = 0.0\nsamples = 4\nvalue = [4, 0]"] ;
20 -> 58 ;
59 [label="Open <= 846.005\ngini = 0.231\nsamples = 15\nvalue = [2, 13]"] ;
11 -> 59 ;
60 [label="Volume <= 68275704.0\ngini = 0.133\nsamples = 14\nvalue = [1, 13]"] ;
59 -> 60 ;
61 [label="gini = 0.0\nsamples = 12\nvalue = [0, 12]"] ;
60 -> 61 ;
62 [label="Open <= 594.184\ngini = 0.5\nsamples = 2\nvalue = [1, 1]"] ;
60 -> 62 ;
63 [label="gini = 0.0\nsamples = 1\nvalue = [1, 0]"] ;
62 -> 63 ;
64 [label="gini = 0.0\nsamples = 1\nvalue = [0, 1]"] ;
62 -> 64 ;
65 [label="gini = 0.0\nsamples = 1\nvalue = [1, 0]"] ;
59 -> 65 ;
66 [label="Low <= 407.924\ngini = 0.32\nsamples = 10\nvalue = [8, 2]"] ;
10 -> 66 ;
67 [label="Volume <= 74422700.0\ngini = 0.5\nsamples = 2\nvalue = [1, 1]"] ;
66 -> 67 ;
68 [label="gini = 0.0\nsamples = 1\nvalue = [1, 0]"] ;
67 -> 68 ;
69 [label="gini = 0.0\nsamples = 1\nvalue = [0, 1]"] ;
67 -> 69 ;
70 [label="Adj Close <= 590.273\ngini = 0.219\nsamples = 8\nvalue = [7, 1]"] ;
66 -> 70 ;
71 [label="gini = 0.0\nsamples = 4\nvalue = [4, 0]"] ;
70 -> 71 ;
72 [label="Low <= 658.311\ngini = 0.375\nsamples = 4\nvalue = [3, 1]"] ;
70 -> 72 ;
73 [label="gini = 0.0\nsamples = 1\nvalue = [0, 1]"] ;
72 -> 73 ;
74 [label="gini = 0.0\nsamples = 3\nvalue = [3, 0]"] ;
72 -> 74 ;
75 [label="Volume <= 121803500.0\ngini = 0.406\nsamples = 134\nvalue = [38, 96]"] ;
1 -> 75 ;
76 [label="Adj Close <= 231.499\ngini = 0.18\nsamples = 20\nvalue = [2, 18]"] ;
75 -> 76 ;
77 [label="gini = 0.0\nsamples = 1\nvalue = [1, 0]"] ;
76 -> 77 ;
78 [label="Volume <= 85705500.0\ngini = 0.1\nsamples = 19\nvalue = [1, 18]"] ;
76 -> 78 ;
79 [label="Volume <= 85240048.0\ngini = 0.198\nsamples = 9\nvalue = [1, 8]"] ;
78 -> 79 ;
80 [label="gini = 0.0\nsamples = 8\nvalue = [0, 8]"] ;
79 -> 80 ;
81 [label="gini = 0.0\nsamples = 1\nvalue = [1, 0]"] ;
79 -> 81 ;
82 [label="gini = 0.0\nsamples = 10\nvalue = [0, 10]"] ;
78 -> 82 ;
83 [label="Adj Close <= 528.136\ngini = 0.432\nsamples = 114\nvalue = [36, 78]"] ;
75 -> 83 ;
84 [label="gini = 0.0\nsamples = 2\nvalue = [2, 0]"] ;
83 -> 84 ;
85 [label="High <= 6460.985\ngini = 0.423\nsamples = 112\nvalue = [34, 78]"] ;
83 -> 85 ;
86 [label="Open <= 6261.345\ngini = 0.438\nsamples = 105\nvalue = [34, 71]"] ;
85 -> 86 ;
87 [label="Volume <= 121953500.0\ngini = 0.42\nsamples = 100\nvalue = [30, 70]"] ;
86 -> 87 ;
88 [label="gini = 0.0\nsamples = 1\nvalue = [1, 0]"] ;
87 -> 88 ;
89 [label="Volume <= 29824251904.0\ngini = 0.414\nsamples = 99\nvalue = [29, 70]"] ;
87 -> 89 ;
90 [label="Adj Close <= 6020.01\ngini = 0.408\nsamples = 98\nvalue = [28, 70]"] ;
89 -> 90 ;
91 [label="Open <= 5593.78\ngini = 0.426\nsamples = 91\nvalue = [28, 63]"] ;
90 -> 91 ;
92 [label="Close <= 5177.129\ngini = 0.407\nsamples = 88\nvalue = [25, 63]"] ;
91 -> 92 ;
93 [label="Open <= 4500.015\ngini = 0.424\nsamples = 82\nvalue = [25, 57]"] ;
92 -> 93 ;
94 [label="Volume <= 3208569984.0\ngini = 0.402\nsamples = 79\nvalue = [22, 57]"] ;
93 -> 94 ;
95 [label="Close <= 2768.445\ngini = 0.346\nsamples = 54\nvalue = [12, 42]"] ;
94 -> 95 ;
96 [label="Close <= 2667.505\ngini = 0.402\nsamples = 43\nvalue = [12, 31]"] ;
95 -> 96 ;
97 [label="Low <= 1020.82\ngini = 0.369\nsamples = 41\nvalue = [10, 31]"] ;
96 -> 97 ;
98 [label="Low <= 907.065\ngini = 0.48\nsamples = 15\nvalue = [6, 9]"] ;
97 -> 98 ;
99 [label="Low <= 680.794\ngini = 0.298\nsamples = 11\nvalue = [2, 9]"] ;
98 -> 99 ;
100 [label="Close <= 604.542\ngini = 0.48\nsamples = 5\nvalue = [2, 3]"] ;
99 -> 100 ;
101 [label="gini = 0.0\nsamples = 2\nvalue = [0, 2]"] ;
100 -> 101 ;
102 [label="Volume <= 144958496.0\ngini = 0.444\nsamples = 3\nvalue = [2, 1]"] ;
100 -> 102 ;
103 [label="gini = 0.0\nsamples = 2\nvalue = [2, 0]"] ;
102 -> 103 ;
104 [label="gini = 0.0\nsamples = 1\nvalue = [0, 1]"] ;
102 -> 104 ;
105 [label="gini = 0.0\nsamples = 6\nvalue = [0, 6]"] ;
99 -> 105 ;
106 [label="gini = 0.0\nsamples = 4\nvalue = [4, 0]"] ;
98 -> 106 ;
107 [label="Low <= 2347.185\ngini = 0.26\nsamples = 26\nvalue = [4, 22]"] ;
97 -> 107 ;
108 [label="Volume <= 284986000.0\ngini = 0.165\nsamples = 22\nvalue = [2, 20]"] ;
107 -> 108 ;
109 [label="High <= 1216.575\ngini = 0.408\nsamples = 7\nvalue = [2, 5]"] ;
108 -> 109 ;
110 [label="gini = 0.0\nsamples = 4\nvalue = [0, 4]"] ;
109 -> 110 ;
111 [label="Low <= 1240.24\ngini = 0.444\nsamples = 3\nvalue = [2, 1]"] ;
109 -> 111 ;
112 [label="gini = 0.0\nsamples = 2\nvalue = [2, 0]"] ;
111 -> 112 ;
113 [label="gini = 0.0\nsamples = 1\nvalue = [0, 1]"] ;
111 -> 113 ;
114 [label="gini = 0.0\nsamples = 15\nvalue = [0, 15]"] ;
108 -> 114 ;
115 [label="High <= 2577.125\ngini = 0.5\nsamples = 4\nvalue = [2, 2]"] ;
107 -> 115 ;
116 [label="gini = 0.0\nsamples = 2\nvalue = [2, 0]"] ;
115 -> 116 ;
117 [label="gini = 0.0\nsamples = 2\nvalue = [0, 2]"] ;
115 -> 117 ;
118 [label="gini = 0.0\nsamples = 2\nvalue = [2, 0]"] ;
96 -> 118 ;
119 [label="gini = 0.0\nsamples = 11\nvalue = [0, 11]"] ;
95 -> 119 ;
120 [label="Volume <= 5200239360.0\ngini = 0.48\nsamples = 25\nvalue = [10, 15]"] ;
94 -> 120 ;
121 [label="Adj Close <= 3855.574\ngini = 0.219\nsamples = 8\nvalue = [7, 1]"] ;
120 -> 121 ;
122 [label="gini = 0.0\nsamples = 6\nvalue = [6, 0]"] ;
121 -> 122 ;
123 [label="Low <= 3851.7\ngini = 0.5\nsamples = 2\nvalue = [1, 1]"] ;
121 -> 123 ;
124 [label="gini = 0.0\nsamples = 1\nvalue = [0, 1]"] ;
123 -> 124 ;
125 [label="gini = 0.0\nsamples = 1\nvalue = [1, 0]"] ;
123 -> 125 ;
126 [label="High <= 4008.274\ngini = 0.291\nsamples = 17\nvalue = [3, 14]"] ;
120 -> 126 ;
127 [label="Close <= 3635.944\ngini = 0.124\nsamples = 15\nvalue = [1, 14]"] ;
126 -> 127 ;
128 [label="Volume <= 5792334080.0\ngini = 0.375\nsamples = 4\nvalue = [1, 3]"] ;
127 -> 128 ;
129 [label="gini = 0.0\nsamples = 3\nvalue = [0, 3]"] ;
128 -> 129 ;
130 [label="gini = 0.0\nsamples = 1\nvalue = [1, 0]"] ;
128 -> 130 ;
131 [label="gini = 0.0\nsamples = 11\nvalue = [0, 11]"] ;
127 -> 131 ;
132 [label="gini = 0.0\nsamples = 2\nvalue = [2, 0]"] ;
126 -> 132 ;
133 [label="gini = 0.0\nsamples = 3\nvalue = [3, 0]"] ;
93 -> 133 ;
134 [label="gini = 0.0\nsamples = 6\nvalue = [0, 6]"] ;
92 -> 134 ;
135 [label="gini = 0.0\nsamples = 3\nvalue = [3, 0]"] ;
91 -> 135 ;
136 [label="gini = 0.0\nsamples = 7\nvalue = [0, 7]"] ;
90 -> 136 ;
137 [label="gini = 0.0\nsamples = 1\nvalue = [1, 0]"] ;
89 -> 137 ;
138 [label="High <= 6393.775\ngini = 0.32\nsamples = 5\nvalue = [4, 1]"] ;
86 -> 138 ;
139 [label="Close <= 6287.92\ngini = 0.5\nsamples = 2\nvalue = [1, 1]"] ;
138 -> 139 ;
140 [label="gini = 0.0\nsamples = 1\nvalue = [1, 0]"] ;
139 -> 140 ;
141 [label="gini = 0.0\nsamples = 1\nvalue = [0, 1]"] ;
139 -> 141 ;
142 [label="gini = 0.0\nsamples = 3\nvalue = [3, 0]"] ;
138 -> 142 ;
143 [label="gini = 0.0\nsamples = 7\nvalue = [0, 7]"] ;
85 -> 143 ;
144 [label="Adj Close <= 7195.667\ngini = 0.5\nsamples = 393\nvalue = [193, 200]"] ;
0 -> 144 [labeldistance=2.5, labelangle=-45, headlabel="False"] ;
145 [label="Volume <= 4502874880.0\ngini = 0.311\nsamples = 26\nvalue = [21, 5]"] ;
144 -> 145 ;
146 [label="Close <= 6505.135\ngini = 0.473\nsamples = 13\nvalue = [8, 5]"] ;
145 -> 146 ;
147 [label="gini = 0.0\nsamples = 3\nvalue = [3, 0]"] ;
146 -> 147 ;
148 [label="Volume <= 3979360000.0\ngini = 0.5\nsamples = 10\nvalue = [5, 5]"] ;
146 -> 148 ;
149 [label="Open <= 6737.295\ngini = 0.469\nsamples = 8\nvalue = [5, 3]"] ;
148 -> 149 ;
150 [label="Volume <= 3446705024.0\ngini = 0.48\nsamples = 5\nvalue = [2, 3]"] ;
149 -> 150 ;
151 [label="gini = 0.0\nsamples = 2\nvalue = [0, 2]"] ;
150 -> 151 ;
152 [label="Adj Close <= 6776.865\ngini = 0.444\nsamples = 3\nvalue = [2, 1]"] ;
150 -> 152 ;
153 [label="gini = 0.0\nsamples = 2\nvalue = [2, 0]"] ;
152 -> 153 ;
154 [label="gini = 0.0\nsamples = 1\nvalue = [0, 1]"] ;
152 -> 154 ;
155 [label="gini = 0.0\nsamples = 3\nvalue = [3, 0]"] ;
149 -> 155 ;
156 [label="gini = 0.0\nsamples = 2\nvalue = [0, 2]"] ;
148 -> 156 ;
157 [label="gini = 0.0\nsamples = 13\nvalue = [13, 0]"] ;
145 -> 157 ;
158 [label="Open <= 8096.382\ngini = 0.498\nsamples = 367\nvalue = [172, 195]"] ;
144 -> 158 ;
159 [label="Adj Close <= 7660.495\ngini = 0.312\nsamples = 31\nvalue = [6, 25]"] ;
158 -> 159 ;
160 [label="Open <= 7265.416\ngini = 0.48\nsamples = 15\nvalue = [6, 9]"] ;
159 -> 160 ;
161 [label="gini = 0.0\nsamples = 6\nvalue = [0, 6]"] ;
160 -> 161 ;
162 [label="Volume <= 20309354496.0\ngini = 0.444\nsamples = 9\nvalue = [6, 3]"] ;
160 -> 162 ;
163 [label="Close <= 7552.408\ngini = 0.375\nsamples = 4\nvalue = [1, 3]"] ;
162 -> 163 ;
164 [label="gini = 0.0\nsamples = 3\nvalue = [0, 3]"] ;
163 -> 164 ;
165 [label="gini = 0.0\nsamples = 1\nvalue = [1, 0]"] ;
163 -> 165 ;
166 [label="gini = 0.0\nsamples = 5\nvalue = [5, 0]"] ;
162 -> 166 ;
167 [label="gini = 0.0\nsamples = 16\nvalue = [0, 16]"] ;
159 -> 167 ;
168 [label="Close <= 8270.524\ngini = 0.5\nsamples = 336\nvalue = [166, 170]"] ;
158 -> 168 ;
169 [label="gini = 0.0\nsamples = 11\nvalue = [11, 0]"] ;
168 -> 169 ;
170 [label="Open <= 8740.23\ngini = 0.499\nsamples = 325\nvalue = [155, 170]"] ;
168 -> 170 ;
171 [label="High <= 8478.073\ngini = 0.142\nsamples = 13\nvalue = [1, 12]"] ;
170 -> 171 ;
172 [label="Close <= 8330.858\ngini = 0.5\nsamples = 2\nvalue = [1, 1]"] ;
171 -> 172 ;
173 [label="gini = 0.0\nsamples = 1\nvalue = [0, 1]"] ;
172 -> 173 ;
174 [label="gini = 0.0\nsamples = 1\nvalue = [1, 0]"] ;
172 -> 174 ;
175 [label="gini = 0.0\nsamples = 11\nvalue = [0, 11]"] ;
171 -> 175 ;
176 [label="Close <= 9267.4\ngini = 0.5\nsamples = 312\nvalue = [154, 158]"] ;
170 -> 176 ;
177 [label="Low <= 8312.977\ngini = 0.291\nsamples = 17\nvalue = [14, 3]"] ;
176 -> 177 ;
178 [label="gini = 0.0\nsamples = 1\nvalue = [0, 1]"] ;
177 -> 178 ;
179 [label="High <= 9198.262\ngini = 0.219\nsamples = 16\nvalue = [14, 2]"] ;
177 -> 179 ;
180 [label="Low <= 8728.931\ngini = 0.375\nsamples = 8\nvalue = [6, 2]"] ;
179 -> 180 ;
181 [label="gini = 0.0\nsamples = 6\nvalue = [6, 0]"] ;
180 -> 181 ;
182 [label="gini = 0.0\nsamples = 2\nvalue = [0, 2]"] ;
180 -> 182 ;
183 [label="gini = 0.0\nsamples = 8\nvalue = [8, 0]"] ;
179 -> 183 ;
184 [label="Open <= 14280.3\ngini = 0.499\nsamples = 295\nvalue = [140, 155]"] ;
176 -> 184 ;
185 [label="Close <= 10950.792\ngini = 0.437\nsamples = 62\nvalue = [20, 42]"] ;
184 -> 185 ;
186 [label="Open <= 9921.476\ngini = 0.494\nsamples = 36\nvalue = [16, 20]"] ;
185 -> 186 ;
187 [label="Close <= 9630.161\ngini = 0.351\nsamples = 22\nvalue = [5, 17]"] ;
186 -> 187 ;
188 [label="Open <= 9333.855\ngini = 0.5\nsamples = 10\nvalue = [5, 5]"] ;
187 -> 188 ;
189 [label="gini = 0.0\nsamples = 4\nvalue = [0, 4]"] ;
188 -> 189 ;
190 [label="Close <= 9554.187\ngini = 0.278\nsamples = 6\nvalue = [5, 1]"] ;
188 -> 190 ;
191 [label="gini = 0.0\nsamples = 4\nvalue = [4, 0]"] ;
190 -> 191 ;
192 [label="Adj Close <= 9613.916\ngini = 0.5\nsamples = 2\nvalue = [1, 1]"] ;
190 -> 192 ;
193 [label="gini = 0.0\nsamples = 1\nvalue = [0, 1]"] ;
192 -> 193 ;
194 [label="gini = 0.0\nsamples = 1\nvalue = [1, 0]"] ;
192 -> 194 ;
195 [label="gini = 0.0\nsamples = 12\nvalue = [0, 12]"] ;
187 -> 195 ;
196 [label="Adj Close <= 10402.933\ngini = 0.337\nsamples = 14\nvalue = [11, 3]"] ;
186 -> 196 ;
197 [label="gini = 0.0\nsamples = 7\nvalue = [7, 0]"] ;
196 -> 197 ;
198 [label="Open <= 10627.965\ngini = 0.49\nsamples = 7\nvalue = [4, 3]"] ;
196 -> 198 ;
199 [label="gini = 0.0\nsamples = 3\nvalue = [0, 3]"] ;
198 -> 199 ;
200 [label="gini = 0.0\nsamples = 4\nvalue = [4, 0]"] ;
198 -> 200 ;
201 [label="Open <= 11700.507\ngini = 0.26\nsamples = 26\nvalue = [4, 22]"] ;
185 -> 201 ;
202 [label="gini = 0.0\nsamples = 14\nvalue = [0, 14]"] ;
201 -> 202 ;
203 [label="Low <= 11615.132\ngini = 0.444\nsamples = 12\nvalue = [4, 8]"] ;
201 -> 203 ;
204 [label="gini = 0.0\nsamples = 2\nvalue = [2, 0]"] ;
203 -> 204 ;
205 [label="Close <= 12561.202\ngini = 0.32\nsamples = 10\nvalue = [2, 8]"] ;
203 -> 205 ;
206 [label="High <= 12167.812\ngini = 0.48\nsamples = 5\nvalue = [2, 3]"] ;
205 -> 206 ;
207 [label="gini = 0.0\nsamples = 3\nvalue = [0, 3]"] ;
206 -> 207 ;
208 [label="gini = 0.0\nsamples = 2\nvalue = [2, 0]"] ;
206 -> 208 ;
209 [label="gini = 0.0\nsamples = 5\nvalue = [0, 5]"] ;
205 -> 209 ;
210 [label="Close <= 16866.37\ngini = 0.5\nsamples = 233\nvalue = [120, 113]"] ;
184 -> 210 ;
211 [label="High <= 15730.6\ngini = 0.124\nsamples = 15\nvalue = [14, 1]"] ;
210 -> 211 ;
212 [label="Open <= 14830.05\ngini = 0.444\nsamples = 3\nvalue = [2, 1]"] ;
211 -> 212 ;
213 [label="gini = 0.0\nsamples = 2\nvalue = [2, 0]"] ;
212 -> 213 ;
214 [label="gini = 0.0\nsamples = 1\nvalue = [0, 1]"] ;
212 -> 214 ;
215 [label="gini = 0.0\nsamples = 12\nvalue = [12, 0]"] ;
211 -> 215 ;
216 [label="Open <= 19086.662\ngini = 0.5\nsamples = 218\nvalue = [106, 112]"] ;
210 -> 216 ;
217 [label="Volume <= 14363143168.0\ngini = 0.133\nsamples = 14\nvalue = [1, 13]"] ;
216 -> 217 ;
218 [label="High <= 17379.768\ngini = 0.5\nsamples = 2\nvalue = [1, 1]"] ;
217 -> 218 ;
219 [label="gini = 0.0\nsamples = 1\nvalue = [1, 0]"] ;
218 -> 219 ;
220 [label="gini = 0.0\nsamples = 1\nvalue = [0, 1]"] ;
218 -> 220 ;
221 [label="gini = 0.0\nsamples = 12\nvalue = [0, 12]"] ;
217 -> 221 ;
222 [label="Close <= 19416.822\ngini = 0.5\nsamples = 204\nvalue = [105, 99]"] ;
216 -> 222 ;
223 [label="High <= 19307.648\ngini = 0.142\nsamples = 13\nvalue = [12, 1]"] ;
222 -> 223 ;
224 [label="Close <= 18783.895\ngini = 0.5\nsamples = 2\nvalue = [1, 1]"] ;
223 -> 224 ;
225 [label="gini = 0.0\nsamples = 1\nvalue = [1, 0]"] ;
224 -> 225 ;
226 [label="gini = 0.0\nsamples = 1\nvalue = [0, 1]"] ;
224 -> 226 ;
227 [label="gini = 0.0\nsamples = 11\nvalue = [11, 0]"] ;
223 -> 227 ;
228 [label="Open <= 19940.128\ngini = 0.5\nsamples = 191\nvalue = [93, 98]"] ;
222 -> 228 ;
229 [label="gini = 0.0\nsamples = 7\nvalue = [0, 7]"] ;
228 -> 229 ;
230 [label="Volume <= 64498067456.0\ngini = 0.5\nsamples = 184\nvalue = [93, 91]"] ;
228 -> 230 ;
231 [label="Close <= 20545.562\ngini = 0.499\nsamples = 169\nvalue = [81, 88]"] ;
230 -> 231 ;
232 [label="Open <= 20173.622\ngini = 0.198\nsamples = 9\nvalue = [8, 1]"] ;
231 -> 232 ;
233 [label="Low <= 19950.503\ngini = 0.444\nsamples = 3\nvalue = [2, 1]"] ;
232 -> 233 ;
234 [label="gini = 0.0\nsamples = 2\nvalue = [2, 0]"] ;
233 -> 234 ;
235 [label="gini = 0.0\nsamples = 1\nvalue = [0, 1]"] ;
233 -> 235 ;
236 [label="gini = 0.0\nsamples = 6\nvalue = [6, 0]"] ;
232 -> 236 ;
237 [label="Volume <= 11051929600.0\ngini = 0.496\nsamples = 160\nvalue = [73, 87]"] ;
231 -> 237 ;
238 [label="Low <= 29208.545\ngini = 0.337\nsamples = 14\nvalue = [11, 3]"] ;
237 -> 238 ;
239 [label="Open <= 25848.061\ngini = 0.165\nsamples = 11\nvalue = [10, 1]"] ;
238 -> 239 ;
240 [label="gini = 0.0\nsamples = 1\nvalue = [0, 1]"] ;
239 -> 240 ;
241 [label="gini = 0.0\nsamples = 10\nvalue = [10, 0]"] ;
239 -> 241 ;
242 [label="High <= 30379.115\ngini = 0.444\nsamples = 3\nvalue = [1, 2]"] ;
238 -> 242 ;
243 [label="gini = 0.0\nsamples = 2\nvalue = [0, 2]"] ;
242 -> 243 ;
244 [label="gini = 0.0\nsamples = 1\nvalue = [1, 0]"] ;
242 -> 244 ;
245 [label="Low <= 20971.56\ngini = 0.489\nsamples = 146\nvalue = [62, 84]"] ;
237 -> 245 ;
246 [label="gini = 0.0\nsamples = 6\nvalue = [0, 6]"] ;
245 -> 246 ;
247 [label="Adj Close <= 23689.988\ngini = 0.493\nsamples = 140\nvalue = [62, 78]"] ;
245 -> 247 ;
248 [label="Open <= 21160.333\ngini = 0.355\nsamples = 13\nvalue = [10, 3]"] ;
247 -> 248 ;
249 [label="gini = 0.0\nsamples = 1\nvalue = [0, 1]"] ;
248 -> 249 ;
250 [label="Close <= 22962.618\ngini = 0.278\nsamples = 12\nvalue = [10, 2]"] ;
248 -> 250 ;
251 [label="gini = 0.0\nsamples = 6\nvalue = [6, 0]"] ;
250 -> 251 ;
252 [label="Low <= 22830.833\ngini = 0.444\nsamples = 6\nvalue = [4, 2]"] ;
250 -> 252 ;
253 [label="gini = 0.0\nsamples = 2\nvalue = [0, 2]"] ;
252 -> 253 ;
254 [label="gini = 0.0\nsamples = 4\nvalue = [4, 0]"] ;
252 -> 254 ;
255 [label="Open <= 57585.883\ngini = 0.484\nsamples = 127\nvalue = [52, 75]"] ;
247 -> 255 ;
256 [label="Close <= 47110.836\ngini = 0.47\nsamples = 114\nvalue = [43, 71]"] ;
255 -> 256 ;
257 [label="Open <= 38817.555\ngini = 0.491\nsamples = 90\nvalue = [39, 51]"] ;
256 -> 257 ;
258 [label="Adj Close <= 37305.27\ngini = 0.441\nsamples = 61\nvalue = [20, 41]"] ;
257 -> 258 ;
259 [label="Open <= 36068.162\ngini = 0.48\nsamples = 50\nvalue = [20, 30]"] ;
258 -> 259 ;
260 [label="Low <= 31549.312\ngini = 0.462\nsamples = 47\nvalue = [17, 30]"] ;
259 -> 260 ;
261 [label="Open <= 30098.259\ngini = 0.489\nsamples = 40\nvalue = [17, 23]"] ;
260 -> 261 ;
262 [label="Close <= 28955.466\ngini = 0.422\nsamples = 33\nvalue = [10, 23]"] ;
261 -> 262 ;
263 [label="Open <= 27996.984\ngini = 0.466\nsamples = 27\nvalue = [10, 17]"] ;
262 -> 263 ;
264 [label="Adj Close <= 25910.614\ngini = 0.413\nsamples = 24\nvalue = [7, 17]"] ;
263 -> 264 ;
265 [label="Open <= 24315.411\ngini = 0.497\nsamples = 13\nvalue = [6, 7]"] ;
264 -> 265 ;
266 [label="Adj Close <= 23807.06\ngini = 0.245\nsamples = 7\nvalue = [1, 6]"] ;
265 -> 266 ;
267 [label="Close <= 23770.291\ngini = 0.444\nsamples = 3\nvalue = [1, 2]"] ;
266 -> 267 ;
268 [label="gini = 0.0\nsamples = 2\nvalue = [0, 2]"] ;
267 -> 268 ;
269 [label="gini = 0.0\nsamples = 1\nvalue = [1, 0]"] ;
267 -> 269 ;
270 [label="gini = 0.0\nsamples = 4\nvalue = [0, 4]"] ;
266 -> 270 ;
271 [label="Open <= 25520.966\ngini = 0.278\nsamples = 6\nvalue = [5, 1]"] ;
265 -> 271 ;
272 [label="Close <= 25006.374\ngini = 0.444\nsamples = 3\nvalue = [2, 1]"] ;
271 -> 272 ;
273 [label="gini = 0.0\nsamples = 2\nvalue = [2, 0]"] ;
272 -> 273 ;
274 [label="gini = 0.0\nsamples = 1\nvalue = [0, 1]"] ;
272 -> 274 ;
275 [label="gini = 0.0\nsamples = 3\nvalue = [3, 0]"] ;
271 -> 275 ;
276 [label="Volume <= 13566119424.0\ngini = 0.165\nsamples = 11\nvalue = [1, 10]"] ;
264 -> 276 ;
277 [label="Volume <= 13203425280.0\ngini = 0.375\nsamples = 4\nvalue = [1, 3]"] ;
276 -> 277 ;
278 [label="gini = 0.0\nsamples = 3\nvalue = [0, 3]"] ;
277 -> 278 ;
279 [label="gini = 0.0\nsamples = 1\nvalue = [1, 0]"] ;
277 -> 279 ;
280 [label="gini = 0.0\nsamples = 7\nvalue = [0, 7]"] ;
276 -> 280 ;
281 [label="gini = 0.0\nsamples = 3\nvalue = [3, 0]"] ;
263 -> 281 ;
282 [label="gini = 0.0\nsamples = 6\nvalue = [0, 6]"] ;
262 -> 282 ;
283 [label="gini = 0.0\nsamples = 7\nvalue = [7, 0]"] ;
261 -> 283 ;
284 [label="gini = 0.0\nsamples = 7\nvalue = [0, 7]"] ;
260 -> 284 ;
285 [label="gini = 0.0\nsamples = 3\nvalue = [3, 0]"] ;
259 -> 285 ;
286 [label="gini = 0.0\nsamples = 11\nvalue = [0, 11]"] ;
258 -> 286 ;
287 [label="Close <= 41129.02\ngini = 0.452\nsamples = 29\nvalue = [19, 10]"] ;
257 -> 287 ;
288 [label="gini = 0.0\nsamples = 8\nvalue = [8, 0]"] ;
287 -> 288 ;
289 [label="Open <= 43136.969\ngini = 0.499\nsamples = 21\nvalue = [11, 10]"] ;
287 -> 289 ;
290 [label="Volume <= 18261869568.0\ngini = 0.219\nsamples = 8\nvalue = [1, 7]"] ;
289 -> 290 ;
291 [label="gini = 0.0\nsamples = 1\nvalue = [1, 0]"] ;
290 -> 291 ;
292 [label="gini = 0.0\nsamples = 7\nvalue = [0, 7]"] ;
290 -> 292 ;
293 [label="Low <= 45167.635\ngini = 0.355\nsamples = 13\nvalue = [10, 3]"] ;
289 -> 293 ;
294 [label="Close <= 43332.389\ngini = 0.469\nsamples = 8\nvalue = [5, 3]"] ;
293 -> 294 ;
295 [label="gini = 0.0\nsamples = 4\nvalue = [4, 0]"] ;
294 -> 295 ;
296 [label="Volume <= 22947260416.0\ngini = 0.375\nsamples = 4\nvalue = [1, 3]"] ;
294 -> 296 ;
297 [label="gini = 0.0\nsamples = 1\nvalue = [1, 0]"] ;
296 -> 297 ;
298 [label="gini = 0.0\nsamples = 3\nvalue = [0, 3]"] ;
296 -> 298 ;
299 [label="gini = 0.0\nsamples = 5\nvalue = [5, 0]"] ;
293 -> 299 ;
300 [label="Volume <= 39336620032.0\ngini = 0.278\nsamples = 24\nvalue = [4, 20]"] ;
256 -> 300 ;
301 [label="gini = 0.0\nsamples = 12\nvalue = [0, 12]"] ;
300 -> 301 ;
302 [label="Volume <= 41861330944.0\ngini = 0.444\nsamples = 12\nvalue = [4, 8]"] ;
300 -> 302 ;
303 [label="gini = 0.0\nsamples = 2\nvalue = [2, 0]"] ;
302 -> 303 ;
304 [label="Adj Close <= 54365.104\ngini = 0.32\nsamples = 10\nvalue = [2, 8]"] ;
302 -> 304 ;
305 [label="High <= 52394.088\ngini = 0.48\nsamples = 5\nvalue = [2, 3]"] ;
304 -> 305 ;
306 [label="gini = 0.0\nsamples = 3\nvalue = [0, 3]"] ;
305 -> 306 ;
307 [label="gini = 0.0\nsamples = 2\nvalue = [2, 0]"] ;
305 -> 307 ;
308 [label="gini = 0.0\nsamples = 5\nvalue = [0, 5]"] ;
304 -> 308 ;
309 [label="Close <= 63142.029\ngini = 0.426\nsamples = 13\nvalue = [9, 4]"] ;
255 -> 309 ;
310 [label="Volume <= 60173807616.0\ngini = 0.18\nsamples = 10\nvalue = [9, 1]"] ;
309 -> 310 ;
311 [label="gini = 0.0\nsamples = 9\nvalue = [9, 0]"] ;
310 -> 311 ;
312 [label="gini = 0.0\nsamples = 1\nvalue = [0, 1]"] ;
310 -> 312 ;
313 [label="gini = 0.0\nsamples = 3\nvalue = [0, 3]"] ;
309 -> 313 ;
314 [label="Volume <= 74413064192.0\ngini = 0.32\nsamples = 15\nvalue = [12, 3]"] ;
230 -> 314 ;
315 [label="gini = 0.0\nsamples = 7\nvalue = [7, 0]"] ;
314 -> 315 ;
316 [label="Low <= 31639.828\ngini = 0.469\nsamples = 8\nvalue = [5, 3]"] ;
314 -> 316 ;
317 [label="gini = 0.0\nsamples = 3\nvalue = [3, 0]"] ;
316 -> 317 ;
318 [label="Volume <= 79322992640.0\ngini = 0.48\nsamples = 5\nvalue = [2, 3]"] ;
316 -> 318 ;
319 [label="gini = 0.0\nsamples = 2\nvalue = [0, 2]"] ;
318 -> 319 ;
320 [label="High <= 40800.279\ngini = 0.444\nsamples = 3\nvalue = [2, 1]"] ;
318 -> 320 ;
321 [label="gini = 0.0\nsamples = 1\nvalue = [0, 1]"] ;
320 -> 321 ;
322 [label="gini = 0.0\nsamples = 2\nvalue = [2, 0]"] ;
320 -> 322 ;
}